#include "nn.h"


float linear(float num) {
	return num;
}

float sigmoid(float num) {
	return 1 / (1 + exp(-num));
}

float relu(float num) {
	if (num > 0) {
		return num;
	} else {
		return 0;
	}
}

float clip(float num, float min, float max)
{
	if (num < min){num = min;}
	else if (num > max){num = max;}
	return num;
	
}

static const int structure[3][2] = {{10, 64},{64, 64},{64, 3}};
static float output_0[64];
static float output_1[64];
static float output_2[3];
static const float layer_0_weight[10][64] = {{-0.8021922112,0.3707927763,-0.3041526675,0.069762677,0.8345190287,0.0387087688,0.6661968827,0.5887491703,1.351585865,0.4599355161,-0.6077035069,-0.5322190523,0.0003896469,0.5777443647,-0.819263041,0.0335377753,-0.0056652399,0.0549446344,0.2784675062,0.3066651821,0.9001656771,0.6454346776,0.0720532537,0.403141886,0.1160644889,-0.5224850178,-0.2278087437,0.491502583,-0.3206342757,-0.1278807819,-0.5064769983,0.5548533797,-0.2764805257,-0.4244122505,-0.6939780712,-0.2076018006,0.0071365442,-0.0871126354,-0.0818471909,-0.0405663252,1.3831897974,0.0713671297,0.6315137744,0.468521446,-0.9851774573,-0.2009217441,2.1232228279,0.424541086,-0.8654009104,-0.4984505475,-0.3035522997,0.172193855,0.0745849088,-1.2988535166,-0.7960947752,1.0989700556,1.201133132,0.2681434453,0.2668527365,-0.6199572682,0.2251039296,-0.9764286876,-0.3655995131,0.6869700551},{-0.5390041471,-0.8179121614,0.1420063227,0.4386256039,-0.0868336931,0.3462058008,-0.1137032881,-0.9280136824,0.0563717969,-0.620909214,0.4501116872,0.2601705492,-0.0045864428,-0.6374437213,0.3538048267,-0.0389862917,0.0018832635,0.7009350061,-0.0954727381,0.3221019208,-0.500777781,-0.0796456039,0.1773310304,0.552406311,-0.5023454428,0.9297435284,0.2450007051,0.0120147821,-0.2822799087,0.5659447908,0.1785909235,0.3131227493,0.0175424442,0.6027682424,-0.3306239843,1.1475058794,0.7861660123,-0.0711404383,0.1639798135,0.1282555163,-0.5276374221,0.1943511665,0.2596165836,0.4027511775,0.049969621,-0.0831044316,1.074650526,0.4985249341,0.0045658886,0.6504785419,-0.0966880992,-0.421540767,0.4760348201,0.4552054107,-0.4390379786,0.3396418095,-0.143509537,-0.5298825502,-0.2696142793,0.6011237502,-0.4075679481,0.293535769,0.3345059454,-0.6182699203},{-0.1297119111,-0.4500545561,-0.1136604249,-0.1606405824,0.2566980422,-0.368858546,-0.0929089785,0.2754945755,-0.0827058926,-0.2970883846,-0.3450398743,0.1113172248,-0.0019150095,-0.6683198214,0.5623646975,-0.0010991944,0.0048120981,-0.1158670783,0.0167324692,0.1457074136,-0.3904547691,-0.4190352261,-0.0444739498,0.0596619248,-0.5744847059,-0.3530988097,0.5457110405,0.7213519216,-0.0402568802,-0.5103564858,-0.02832851,0.0327783711,-0.1718221158,0.128729254,0.159294337,-0.1807482541,-0.1447433382,0.141425699,0.8724796772,-0.0950577781,-0.4573799968,-0.8162485957,-0.2274374068,-0.7472695112,0.2509983778,0.0344869569,-0.956561923,0.2051296532,0.0057118665,-0.1330774724,-0.0617610253,-0.2817244232,-0.2751145959,-0.2217032909,0.0350433625,0.3603999615,0.0256835446,-0.0463612266,0.0577485822,-0.3140720725,-0.0888997018,-0.0265346356,-0.0234169457,0.3564479351},{0.10768345,-0.4011391699,0.2122439891,0.2983299792,-0.7468925714,-0.2439451367,0.2608344853,-0.6218363047,-0.0902086422,0.0519580469,-0.2593409717,0.604978919,-0.007553746,0.91868788,-0.0201404653,-0.0355112031,-0.0039625098,0.1269029528,-0.0071245916,0.0817465633,0.5040059686,-0.0624194331,0.1541713923,0.1004126072,0.0081314044,0.2765452862,0.2169066966,-0.2968073785,0.4424968958,-1.0126186609,0.0342212133,0.0770386234,-0.3724004924,0.107029438,-0.2510018945,0.5314814448,-0.1789259464,-0.0537679531,-0.2701478601,0.412840426,0.2684329152,-0.4287015498,0.0116002262,0.1583200991,-0.1098042354,0.0099985544,-0.2426332831,0.0986342803,0.1577686369,-0.038091436,-0.0919110253,0.2638789415,0.3296338916,0.4643191099,-0.2537607849,0.2097676694,0.0318421759,0.1249168813,0.1329897195,-0.0978954658,0.0381747745,-0.5067019463,0.046544224,0.5595723391},{-0.0188177768,-0.33390221,0.0902345479,-0.4199662209,-0.0370041579,-0.2239925712,-0.2945680618,0.2476789206,-0.1052703708,-0.1002384871,-0.2010720223,-0.2968042493,0.0007655594,0.8799185157,-0.1692510247,-0.0409681983,-0.0036518571,0.1761370301,0.0110561661,0.1725354046,0.2873960435,-0.1656219661,0.0103503903,0.3407218158,-0.6941699386,0.2895663381,-0.4268342853,0.0003129208,-0.0938288942,0.7216085792,-0.0795154572,-0.0704261139,0.31956321,0.2069803029,0.0468409508,-0.4053737819,0.155595392,0.0604763925,0.1594269276,0.1029286757,0.2056441456,0.0965493321,0.0186570454,-0.1287274212,0.0475709997,-0.0027635728,-0.313716352,-0.0573057197,-0.1376500726,0.01460467,0.0550894849,0.4688590765,0.1269574314,-0.1124681905,-0.032807,-0.0003117108,0.0526978523,0.0132298721,0.1207923666,0.4749814868,0.1395104825,-0.2067744881,-0.0368184634,-0.1918233186},{-0.2818311155,0.0893765762,-0.2404767722,-0.0100796726,-0.1768969595,0.3957285285,0.1590480059,0.0364322402,0.1095020324,0.0890244469,-0.2743876278,-0.1747302115,-0.0020235258,-0.2695304751,-0.12739712,-0.0577996969,-0.0071807662,-0.0572533011,-0.0115755443,0.0460881144,0.1123435497,0.0908147395,-0.1789682806,-0.1955600381,-0.001610089,0.391787231,0.6502140164,-0.2532570958,-0.1531106681,0.5149798393,0.2421122342,0.1065330803,-0.1650680155,0.2479872108,-0.2063361704,-0.1943236738,-0.190623045,-0.7561820149,-0.6450591087,0.3949168622,-0.2239494771,-0.5453794599,0.0474410318,-0.745760262,-0.0104787434,0.0105820931,-0.5080561638,-0.1310698688,-0.0120425373,0.3349905908,0.0907681957,-0.0733712614,0.0064560529,-0.14907372,0.1826151311,-0.0885605887,-0.0549399219,-0.174008131,0.1240896061,0.0504840799,-0.0605187565,0.0016624529,-0.0849551111,0.2138796151},{0.8001776338,0.4610522389,-1.6161953211,-3.6579072475,-3.2760980129,-1.5930529833,-2.9844229221,1.1018414497,-2.7950334549,-0.2316553891,2.3784348965,-1.4512072802,-0.0462368727,-2.9525332451,3.1710340977,1.0771391392,0.0028768783,0.1501003504,-0.2275652587,1.9567034245,-2.5554747581,-2.8117177486,1.2575355768,0.4143594205,2.9463293552,-0.4136937857,1.646602869,-2.9068398476,2.7474696636,3.5290987492,1.0124291182,1.5691100359,-3.5175879002,-3.3129601479,2.3453195095,-1.6293028593,0.6251090169,3.4295890331,-2.8332929611,3.0522460938,1.5989738703,-3.142216444,-0.1942880005,2.6000657082,-0.0485142507,-0.7359114289,-0.1306203902,1.176145196,-3.368052721,0.0516384877,1.9494588375,-1.7407281399,1.9919458628,0.3479649425,1.9166272879,-2.3552892208,-0.0835354701,1.5127775669,-2.8545713425,1.7358014584,0.3151662946,-2.8011960983,0.203726992,1.120583415},{-0.0361909755,-0.243845731,-0.1329846978,-0.0829116851,-0.3989036977,0.510568738,-0.3203369677,-0.1440883875,0.2389399409,0.4099178016,-0.1235797331,-0.6498659253,-0.0052434681,0.3819018602,-0.6215800643,0.3790208101,0.0017089265,-0.098218888,-0.07090725,-1.4160760641,0.4115326107,0.1614263058,0.1867834479,-1.1461398602,0.3274439871,-0.9700393677,0.7762268782,0.1152244955,0.3163788617,0.1347624511,-0.3478504717,0.1880496591,-0.1177805886,-0.0752079934,0.5483202934,-0.5274478197,-0.1413065195,0.2405385673,0.2707157433,0.2040538937,-0.1816193461,-0.6632211804,0.6188195348,0.2899183035,-0.7359223962,-0.0687419921,0.2586987913,0.0954635516,0.3605028689,0.5859771967,-0.0437233075,-0.0684073642,0.1333100796,0.1090342924,0.2166817039,0.1915617883,-0.1746254116,0.7824856639,0.2389382273,0.0849347413,0.0907695815,0.2028532922,0.2190180123,-0.2932032049},{0.0750137791,-0.0913266912,0.2006569505,0.465870887,0.3105970025,-0.3756007254,-0.5049396753,0.0468404256,0.0733061954,0.2411596477,-0.2406897545,0.2749549448,-0.0050960598,-1.1059696674,-0.4409314096,-0.0388887748,-0.0009874302,0.2385492772,-0.0262686461,-0.0165339373,-0.399297893,-0.4334107637,0.0745252669,-0.1017000154,-0.4513551593,0.0632730871,0.2274177223,0.3513910472,0.005629804,-1.3560420275,-0.2510807514,-0.1162629873,0.2644906938,0.1635770351,0.0315626226,-0.19206433,0.3357155919,0.542378664,-0.0617578104,0.409474045,0.3087075055,-0.424859643,0.1299078912,-0.6618229747,0.0059951898,0.0091387536,-0.0773200169,-0.4281970263,-0.2388791293,-0.1279359609,0.0656590238,0.1813080758,0.3950401843,-0.0411010608,0.1369833797,-0.1185267419,-0.0325086638,0.204766497,0.4758844674,0.5071334243,0.2711724341,-0.457614243,-0.0019036066,-0.3490120769},{-0.1352141649,0.2927093506,-0.3832737803,-0.4539211988,-0.4250371158,0.3404662311,1.0254266262,-0.1495382935,0.2411559075,0.166216597,-0.255142808,-0.5565952063,-0.0012739979,0.4829542041,0.2672489285,0.0136638703,-0.0053064795,-0.4127008319,-0.0212321524,0.1190153584,-1.1952124834,0.0244941954,-0.2494575977,-0.0599964,-0.1631972194,0.0937394798,0.0771819055,-0.1867157519,-0.1434953362,-0.7585518956,0.2141278982,0.1486754268,-0.1460268795,0.0209083911,-0.0632443056,-0.1945045888,-0.1503757834,-0.762262702,1.0797350407,0.7207316756,-0.1130808592,0.375166893,0.1794946045,0.293048054,-0.1500716358,0.016852174,-0.3360814154,-0.1872813553,-0.2088650465,0.5091421008,0.1261942983,-0.2142772526,-0.025296513,-0.150869891,0.5113258958,-0.1976854205,-0.0666315779,-0.049488619,0.0445027985,-0.1377379745,-0.0211079102,-0.2052049339,-0.0837250873,0.1075636819}};

static const float layer_1_weight[64][64] = {{-0.0577678345,0.0458804667,-0.0593903475,0.0139676044,-0.0147618065,0.0128344744,-0.1043745056,-0.4410703778,0.164619118,0.1632485539,-0.0057219472,-0.0857782289,0.2356219292,-0.0604351796,-1.0049813986,-0.1549636275,-0.3695073128,-0.0540097877,0.0630511492,0.1012613177,-0.072896339,0.3933311999,0.0963468328,-0.2220897079,-0.0596632436,0.0677335411,0.1139258742,0.1952932328,0.0291836262,0.0307666156,-0.0125982901,-0.2580157816,0.0363237783,-0.2873753309,-0.0413238406,0.0066262702,-0.1050964445,-0.3766967356,-0.4119845331,-0.0910880268,-0.0826470032,0.0145247541,0.0846756622,-0.1064369828,-0.1085239202,0.0096035702,-0.0477723666,-0.417842865,0.1139789745,-0.0625496358,0.032081984,0.1680165827,-0.0983253047,-0.0309278443,-0.069844611,-0.2259697765,-0.0034298375,0.0517105721,0.1506379098,-0.1336164474,-0.0843376741,0.1580761522,0.0657992959,-0.1607010067},{0.5003472567,-0.0080534797,0.0327668674,0.0310891606,-0.2319289595,-0.0603327528,0.0896313861,0.2625466883,0.0333496034,-0.1374946535,0.2967209816,-0.3184047639,-0.0693456307,-0.0559145063,-0.854016006,0.1695497334,-0.4077248275,0.0184696596,0.0033734913,-0.0746496171,0.1241496205,0.1551525295,-0.1459232122,-0.7481129169,0.0661878586,-0.0959364772,0.2662771344,-0.2009009868,-0.0829350352,-0.1538321376,-0.007703437,-0.1947649866,0.0588182509,-0.6201922297,-0.1273798048,-0.0415327959,-0.0886215344,-0.3983102143,0.0047333483,0.1768826395,0.1558396965,-0.143377915,0.1524622887,-0.0055475333,-0.0750545114,-0.0361303538,0.749966681,-0.0288245454,0.0428097807,-0.1491456926,0.1310181916,0.0261850394,-0.0421994664,-0.1383159906,-0.0661206469,-0.6875707507,-0.0369523726,-0.0104461275,0.0301685389,-0.1089846641,0.3094753027,-0.1669419855,0.1231546924,0.2001314759},{0.0009472696,0.0202770848,-0.144329831,0.0509351008,0.0452755541,0.0196305905,-0.1728311032,-0.1534701288,-0.2706015408,0.071153082,0.1423960775,0.0326784998,-0.0451251604,0.0394223221,-0.1812663674,0.100319773,0.0473801196,0.2317243963,-0.2490000576,0.2570460737,-0.0016100862,-0.0490443036,0.0237868987,-0.0184256732,0.2270229906,0.1464859545,-0.2127647102,-0.2533979118,-0.152461201,-0.0741447732,-0.1596653759,0.0805564076,-0.0777860358,0.2192569375,0.0156849287,-0.0553539246,0.1342745721,-0.081789054,-0.4850472808,0.2244116068,0.0046832054,0.0333213471,-0.2920185626,-0.009326864,0.1555934399,0.0552283898,-0.1907789558,-0.215554893,-0.0191233438,0.0839153901,-0.0607757196,0.1665834188,-0.0890459567,-0.100386031,0.1787281334,0.0816636756,0.0418861024,0.0627009049,0.0016162291,-0.3089495897,0.067757979,-0.0927951261,0.081500791,-0.0896886289},{-0.1064805612,-0.0796387792,-0.0087628448,0.0125014149,0.1664377004,0.0168124642,0.0190296546,-0.1160880625,-0.006237715,0.0772996619,0.0932133645,0.3084454834,-0.008217141,0.013368425,0.8153027892,-0.0256536119,0.2224953771,0.0155463414,-0.051051043,0.0504409187,-0.0485111512,-0.4193174839,-0.0002284958,0.0397516228,0.0993569419,-0.0143984742,-0.2064389586,-0.2706927657,0.0108707501,0.0396105163,0.0318572149,1.5983997583,0.0128063085,0.2761516869,0.0839252323,-0.0945464373,-0.0816976056,0.3778236508,-0.4270607829,0.0048604095,0.0013735704,0.0654730648,0.2938452959,0.0191340689,0.0074213753,0.0279276408,-0.0444663502,0.2680267394,-0.0395794325,0.1963700503,-0.1427496076,0.0093017351,0.0075879414,-0.0595734455,-0.0115118194,-0.2570586801,-0.0350223929,0.0785201639,-0.0295378882,-0.0952095985,1.1850435734,0.0937185362,0.0576975308,0.0190344881},{0.3840332627,-0.0925518051,-0.0760248378,-0.0028618022,0.1241033524,0.0384203941,-0.0665952861,0.3262099624,-0.0295623112,-0.0650384575,-0.1697262973,0.059973713,0.1198051125,0.0709201843,0.4643529356,-0.0609892309,-0.0166190136,0.0310292765,0.1035774648,-0.0694496483,-0.0892797559,-0.0937254205,0.103745386,-0.3136394322,0.0176961794,0.0777142942,-0.4305209517,0.115493007,0.0430195816,0.0012678365,0.1093759909,1.2259799242,0.0733887702,-0.2273464054,-0.0004534373,-0.1298690885,0.0272535682,0.0019601176,0.5746980309,0.0712966472,0.0248698946,0.18498604,0.1560751051,0.0123659363,-0.0525764152,0.0159020014,0.7300835848,0.7980526686,-0.1039949059,-0.0604610145,0.0198043473,0.1449918896,-0.0188276153,0.0470386893,0.1186014041,-0.4803150892,0.1908553541,-0.008872279,0.2617046237,0.1160289645,1.5664074421,0.0921047404,-0.0191394575,-0.0525513962},{0.1999073327,0.0917772874,-0.0074650859,0.2048821598,0.0677079707,-0.2662307918,-0.0245848335,0.0175523162,-0.0348721817,-0.0920263827,0.0389500707,-0.1044420302,-0.0024293254,0.0779692158,0.8286592364,-0.1157786027,0.0013736504,0.0675241947,0.041822847,0.1929106265,-0.0493388027,-0.3903704584,-0.1656272858,0.459418565,0.0296662208,0.0393878408,0.1671835929,0.0194205996,-0.0198393837,0.0470553488,0.0860332772,0.3460842967,-0.2056076974,0.5662479401,-0.136599943,0.1346399784,-0.0124831386,0.4139423072,0.5380066037,0.1164842397,0.0328447074,0.0497054197,-0.0210859533,-0.0676628128,0.0599400662,0.064731814,-0.5012145638,0.0769727528,-0.0592372715,-0.3479360342,-0.0652799606,-0.1317376643,0.0340120979,0.1167636365,-0.1430650204,0.2075051069,-0.0377974696,-0.0568499304,0.1733391136,-0.1371962875,-0.0426628366,-0.152832523,-0.0550688058,-0.1359966695},{0.1176810414,0.051265981,0.1441270411,-0.0974209607,-0.1436065286,-0.1656138599,-0.0293435678,0.0276936945,0.0326102078,-0.154636696,-0.1067333594,-0.2964245677,0.0837429687,-0.0121876225,0.8237665296,0.0036655944,-0.0553028174,0.2062588036,-0.1341803819,-0.0697140768,-0.0276823565,0.2132282555,0.0217590053,-0.2116458565,-0.0291837007,0.0313967317,0.4768446386,-0.077840209,-0.0137061151,0.1048835218,0.1579164714,0.8383879066,0.2131578326,0.2252974957,-0.0431582332,0.1648333669,-0.0356070288,0.0897072852,0.5770093799,-0.12575607,0.0939192772,-0.06878791,-0.1426199526,-0.0349546708,-0.0797749013,-0.0046422137,0.4322696328,0.1199498326,-0.0497621596,0.1863821447,0.0989789814,0.1463076174,-0.1046994478,-0.182145685,-0.0922269374,-0.5381433964,-0.0584990121,-0.0187034141,-0.1385322809,-0.2682187259,0.8358960748,-0.0402712002,-0.1196132526,0.0093376702},{0.3259524703,-0.0134075498,0.0552104674,-0.0287797805,-0.0624481104,0.163735196,-0.0124661429,0.3568836451,0.0930821449,0.0559514351,-0.0591578856,0.1087015495,-0.0456363037,0.0201899316,0.170479551,-0.1669002622,-0.2444855571,0.0526581816,-0.025226254,-0.0203571003,0.1287918836,0.0947758183,-0.0540451184,-0.3176267147,-0.0180822182,0.0475589968,0.011182881,0.1299414635,0.0851412565,0.0067950157,-0.169096306,-0.1338562816,-0.147909537,-0.2774569094,-0.0487433262,0.0864304677,-0.0894041434,-0.1638550013,0.5042151213,0.0495704561,0.0937274545,-0.0558159836,0.3136098385,-0.0467192829,-0.2583510876,-0.114345476,0.3463155627,-0.2531212866,-0.0619156882,0.0648555309,0.2407367826,0.1222996712,0.1217362657,0.1420654655,-0.039394591,-0.4645313025,-0.0933726206,-0.1091719568,0.1181774363,-0.07049945,-0.0532988273,0.0235621985,0.0190325771,-0.1431908309},{0.5733775496,-0.0617625043,0.0366358645,-0.2003724873,-0.0993661284,-0.0066168448,-0.1999344826,0.5628302097,-0.0160814933,0.1779012978,0.2323484272,-0.225690037,0.034365125,0.0928779319,1.3024549484,0.0249509867,0.0293845348,0.1230521873,-0.0038858859,0.0568525344,-0.0373408422,-0.1591903716,0.1381002814,0.4398457408,-0.073613666,0.0623791404,0.1942644119,-0.7196213603,-0.0705412254,-0.1284486651,-0.0536878966,0.8849265575,-0.0930059254,-0.318023771,-0.1918935627,-0.1160314828,0.0946149677,0.5247279406,0.4757271111,-0.0919513851,0.0227438398,0.1068475395,-0.0458225869,0.0665318593,0.2185032368,0.0623760112,0.2797321975,0.5195667744,0.0738828555,0.2783415616,0.1891857833,-0.168527633,0.1599882096,0.0733637512,0.0000014836,0.0468091965,0.1699851751,-0.1650667042,0.0242663976,0.1746714562,0.4270428419,-0.0527785569,0.1062301844,-0.1228069738},{0.1505697668,0.0267292485,0.0843448415,-0.0269428156,-0.2856925726,0.119152911,0.1296125054,0.0533547588,-0.0618479997,0.0116233863,-0.0485792011,0.0743313357,-0.2126608193,0.1658238024,0.1020923704,0.0947830603,-0.3415333033,0.1751129329,0.0168897156,0.0402330905,-0.0411448367,-0.175085932,0.0022992932,0.1901565641,0.1586959809,-0.0803659782,0.295853138,-0.4141109884,-0.0556880422,-0.0588023961,-0.0546574704,-0.0655020773,-0.0732375085,-0.3088430166,0.0704521015,0.1363809258,0.1572054774,0.0268813856,-0.0395117924,0.1595534682,-0.0792667717,0.1190612987,0.2334018946,0.0623104237,0.1779939681,-0.0387143604,0.0669192746,-0.4284470677,-0.0598312952,-0.025876116,0.0961527452,-0.0197082441,-0.2349342853,0.100138545,0.1134790704,-0.2170830965,0.1183348,-0.0324847884,0.0912249982,-0.0585478023,0.0532782525,-0.1130067185,-0.0979661122,-0.0505918749},
											 {0.2523706555,-0.0845153108,0.0911400691,-0.0483557656,0.0254077706,-0.0328541026,0.175674364,-0.6226916313,0.0829349905,-0.1104768142,-0.1001648381,0.366632551,-0.0889824033,-0.0122098429,-0.3040013909,-0.1185400039,0.2998054028,0.1938655227,0.0130001614,0.0947874486,-0.0494289696,-0.3382177651,-0.1219208091,0.0723198652,0.0260425378,-0.1235357597,-0.3806692362,0.1146386713,-0.0414190814,-0.2106947899,-0.030792214,-0.6588670015,0.1435755491,0.1701060832,-0.3511627913,-0.103064768,0.0144807203,0.3671391904,-0.0513072126,-0.1020168215,0.0439741537,-0.0136088878,0.3082381487,0.0394090191,0.117342934,-0.0638315007,-0.6188222766,0.716683507,0.1172984093,0.0537252203,0.0015276036,0.0094397124,-0.0812335312,-0.1487267762,-0.0053177746,0.128539145,-0.0245706812,0.0459506661,0.029307656,0.0041221818,-0.7558313608,-0.138345167,0.1993530244,0.1291929036},{-0.4637874365,0.0399672352,0.0490578935,0.0045659994,-0.1178860888,-0.1251377165,0.0435475856,0.1254363954,0.0025820159,0.0383876935,-0.1765267402,0.089604415,0.0399608016,-0.0734823346,-0.0955485553,0.0198705215,0.1839880198,0.0131060369,-0.0424094908,-0.0639035255,0.0328607149,-0.528742075,0.0728092492,-0.2732524872,-0.1422124654,0.0012459266,0.0092041343,0.0648477674,0.0349850319,0.0857341439,-0.1852803379,0.1050613895,-0.0837715194,-0.1278463602,-0.0221929122,0.271810919,0.1209362894,-0.226374656,-0.4743289053,0.1014034972,0.0414514914,-0.1331231147,-0.1206509247,-0.1433790475,-0.113048777,-0.0705624446,-0.0046470915,-0.1406995505,0.0720577762,-0.0062927497,0.0116493059,-0.0491029434,0.0840802193,0.1236023977,0.012809569,-0.0993489325,-0.028659394,-0.0333821364,-0.0281439256,0.1136318669,0.5508953333,-0.1266490221,-0.0346281677,0.0122526018},{0.0109508401,-0.0144478874,0.0460381731,0.0609828942,0.0154899117,0.0998181403,0.0658440441,-0.0010694555,0.0629575178,-0.0679492056,0.0103672883,-0.0175300576,-0.0383444503,0.0442344956,0.0070011364,0.078887701,-0.001405467,0.0495374762,-0.0301976483,0.0546059124,0.0587696098,-0.0017618117,-0.0225167647,0.0072828666,0.0317012817,0.018658977,-0.0014611911,-0.0021438661,-0.145316422,-0.0782061666,-0.0604548492,0.0016537985,-0.0607926846,0.0005455284,-0.0458724536,0.0724057183,-0.1041144207,0.0019102864,0.0018764848,-0.0813395604,0.1270662248,0.0394413844,0.0001030412,-0.0474633351,-0.060632132,0.0064498684,-0.0001673424,-0.0010014023,-0.0757539347,-0.0883638263,-0.0925533846,0.17330046,-0.0007709827,0.0624543838,-0.0955159962,-0.0042707641,0.0544874035,0.1578231752,-0.0403714292,0.050603833,-0.0003301431,0.0962473601,-0.0285589211,-0.0419882126},{0.4237921536,-0.0297386497,-0.0041789156,-0.018002091,0.0387587696,0.0152718928,0.0439077429,0.0946689397,0.0190005787,-0.0111810397,-0.0114781559,-0.052420225,-0.0343751833,0.0290122796,0.4752841592,0.0462679081,-0.2056864053,0.0132883945,-0.0076054074,0.0192460306,-0.0054448131,-0.0945490077,-0.0219512172,0.8299747705,0.0477727912,-0.0217289142,-0.144018352,0.185064137,-0.0017227798,0.0085400557,-0.0236470122,0.8154351711,0.0136004947,0.2724681795,-0.0504234098,-0.0120150093,0.011240636,0.2078265846,-0.4401644468,0.0678765997,-0.0096708518,0.000177994,-1.0007739067,0.0001889337,-0.0837532952,-0.0175376181,0.0354820006,-0.7786111832,-0.0109295147,0.0304252058,0.0018864078,-0.0155203203,0.0260705352,-0.0322671309,-0.0048442138,-0.2006475925,-0.0297823586,-0.0016882714,0.0111906659,-0.0283709057,0.4453695714,-0.0401334167,0.0090752589,0.0235261992},{-0.2453685254,0.0722420886,-0.0338050313,0.0012077675,-0.3201234341,-0.0030016925,0.045732595,-0.1111600548,-0.0823062956,0.0322898701,0.16363056,0.0622441061,0.0424849577,0.0961873159,-0.6244699359,0.1929401159,0.6210240126,0.2114422023,-0.0513110273,0.0420443714,0.0836481005,0.4588779807,-0.0646595284,-0.3695291281,0.1292462945,0.085841313,-0.0063298051,0.5331597328,0.0021013091,-0.0370625816,0.0177060291,-1.736138463,-0.0823913738,0.3166514933,0.0879930109,-0.0408643372,-0.09933047,0.1032824516,0.2281425893,-0.0153665328,0.0083115958,0.1085506082,-0.0411541946,0.046611879,-0.0406552367,-0.037911091,-0.6145852804,0.4055340886,-0.0843395963,-0.2241568863,0.1839578897,0.0114085507,-0.0063201385,0.1704607457,0.1829800904,0.439647615,-0.0011395864,-0.1031675786,-0.0352375098,-0.0117926011,-1.4104787111,0.0845240131,-0.0836291313,0.0862952024},{0.0399077982,-0.1760376096,0.2409300953,0.0490480848,0.1737778783,-0.0011180746,-0.0406840183,-0.0646117255,0.2618133426,-0.0138036516,0.1447194517,0.0657403469,-0.1072225422,0.1056143343,0.0434582867,-0.0643665567,-0.0889857486,-0.0428441614,-0.0464694351,0.0347382315,-0.1512715071,0.2433643639,-0.0497453734,0.2358074933,0.0449918918,0.0901600346,0.0753617808,-0.0398449749,0.1216986924,0.2495864481,0.1050244644,-0.0284423698,0.0832327455,-0.0690132901,-0.0420350358,0.1410777569,0.0980230719,0.0315369181,0.0247310326,0.204816252,0.0509249158,-0.1425024718,0.1394299865,0.12298017,0.0689712763,0.102580145,-0.117725715,-0.0279856473,0.0090459334,-0.0544418134,-0.2738243937,0.0167657789,0.02552641,0.1221780106,-0.0606721677,-0.0404179357,-0.2103328407,0.0240995251,0.0489980206,-0.0289926659,-0.070542343,0.1166399494,-0.0180597622,0.0858167112},{0.0138952248,0.0011487113,-0.0095276916,0.0231373608,-0.0062182229,0.0331903622,0.0041141417,-0.0038773108,0.0135987531,-0.020600114,-0.0119993007,-0.0000943201,0.0167239849,-0.0327145644,-0.0133577203,0.0304683726,-0.0016710857,0.0238756258,0.0050055822,-0.0556388982,0.0185433123,-0.0042997696,-0.0126522984,0.0034981354,0.005294844,0.0432554856,0.0002895003,0.0026747358,-0.0030135009,0.0107544912,0.0254484396,0.0030370171,0.059603665,0.0054016449,0.0017725594,0.0214679074,-0.0830545351,-0.0065997294,0.006716873,-0.0400465615,0.0090237539,0.0011017701,-0.0119783105,0.010159051,0.0175648779,0.0206969101,-0.0157258771,-0.0103791757,0.0380418897,-0.0140253967,0.0123571195,0.0357200615,0.0074074031,-0.0569040067,-0.042892199,-0.0054666526,0.0018470912,0.0085000806,-0.0231593065,-0.0357112028,0.002804901,0.0358888283,0.0327621177,0.0068264706},{0.0256923642,0.1443676949,0.0564960018,0.0628434494,-0.0300523564,0.0496921539,0.0757595003,0.1079716682,-0.0050889454,-0.2306280136,-0.019129023,0.4544939995,-0.1015366316,-0.0889699757,0.4928171337,0.0007389354,0.4855408072,-0.001101768,0.0930887908,0.0641030371,0.0857675523,-0.5967606306,0.0986060798,0.3077466488,0.0470762365,0.0222267788,-0.3008397818,-0.2118181139,0.2452266514,0.0331008546,0.1547337621,0.0779181272,-0.1542010009,0.4011663795,-0.0307771657,0.0360907242,-0.1905608624,0.3514659405,-0.2661574185,-0.0866926387,0.0893610865,-0.1754650474,-0.0820162073,0.0250919014,-0.1071271747,0.0775914341,-0.385597527,0.154488489,-0.1074035391,-0.0515475087,0.1458809227,-0.0202873331,0.0496837832,0.0008672351,0.0097387955,0.3771265447,-0.0264981054,-0.0080769528,0.0811813697,-0.1135149673,-0.1276264936,-0.002385872,-0.0459623709,-0.0852260962},{-0.0191937014,0.0590222031,0.1367703527,0.1530894488,-0.0363884717,-0.1583492756,0.0158933531,0.2037044019,-0.0058704107,0.1941480637,0.076669611,-0.2180043012,-0.1233817413,0.1346824914,-0.0115816174,0.047053799,0.0186537188,-0.0169264022,0.0966362581,-0.0676732808,-0.1316868663,0.0663250536,-0.0819257274,-0.0194038693,-0.0124255074,-0.0034375216,-0.0471179448,0.0117268385,0.1653895974,0.2182486057,-0.0720656067,-0.0030860417,0.0145762516,0.0051605301,-0.0711844563,-0.0108230831,-0.0875460282,0.0283724107,-0.0252855401,-0.0838197544,0.0664537624,-0.0288469847,0.014921058,0.070617944,-0.1209966168,-0.1643166691,0.032437291,-0.0027496142,0.1045230404,-0.1287018657,0.0809442773,-0.0588326901,0.0677805319,-0.0789525136,-0.0019094239,-0.019469697,0.0755678266,-0.0023659526,0.0535612665,0.0010840114,-0.0036264472,0.0931733176,-0.2351626903,-0.1627019048},{-0.1005148217,0.0662906542,0.068687588,0.0688283518,-0.1037834287,-0.0645775497,-0.0863094479,0.0549162067,0.138434276,0.0126461219,-0.0255033933,-0.0066732056,-0.0135483481,-0.0436332375,-0.4572533667,0.0741208047,0.6190699339,0.0258609261,0.1707618833,-0.0362254791,0.0658831373,-0.2123241425,0.038840808,-0.7466715574,0.0536900014,0.0104907863,0.0075840703,-0.0272704661,0.039796222,-0.0745185465,-0.0842252672,-1.2116959095,-0.0726820081,-0.5342922211,0.0354389176,-0.0075352346,-0.0352782272,0.0137406923,-0.0653141141,0.1632378101,-0.0015436038,-0.1067290083,-0.104543969,-0.1827929765,0.0608341135,0.0144780492,-0.2042378038,0.1871592104,-0.0291957017,-0.0640553534,-0.0130647216,0.004435733,-0.0462971963,-0.1891622543,-0.0665024072,-0.1974907517,-0.1530052871,0.0001270714,0.1359311193,0.01523198,-0.243775025,-0.1595925838,-0.0343077146,0.0888054892},{-0.0484415442,0.0645341352,0.0768987238,-0.0027895959,0.0165208057,0.0051035453,-0.0353106,0.2043225765,-0.0185168069,0.0768394545,0.0675114095,0.1086716875,0.0010541205,-0.020120075,0.2820012569,0.0305635538,-0.6350354552,0.0560183711,0.0641827807,-0.0652638152,-0.066011928,-0.3012994826,-0.0459285304,0.0289464835,0.1835445464,0.068673104,0.1424586177,-0.275426954,0.0029630414,-0.0862604976,0.0087089846,0.8736035228,0.0571122095,-0.1295084655,0.0548479222,0.0476999171,-0.0614067838,-0.0907027423,-0.3796727359,0.0235896241,0.0905722231,0.0062230472,-0.4597575366,0.0078489454,0.2385895252,-0.0711054057,0.5600534081,-0.7303931713,-0.0019311705,-0.2202147841,0.0242731497,-0.0332142748,-0.0792438015,0.092212297,0.0523836389,-0.3797630072,0.0229526926,-0.0748579502,-0.0337505937,0.004630107,0.8101820946,0.1235469505,-0.0548166335,0.1283992082},
											 {0.6313079596,-0.0743246973,-0.0828519762,-0.0733934641,-0.0239860732,0.2666001916,-0.0353085063,-0.0664130375,0.1361563355,-0.1116139442,-0.0750336051,-0.2539119422,0.2630876303,-0.1002702639,0.3365072906,-0.0359212831,-0.2307191044,-0.1311008632,0.1679956466,0.0811905786,0.0663791522,-0.2013131231,0.1455364227,-0.0566984192,-0.0798365921,-0.0253852271,0.2382328808,-0.4401110411,0.1656848341,-0.0170422718,-0.07481803,0.5267686844,0.0547146574,0.1340741664,-0.0723883882,-0.128054589,-0.1266542077,0.2726106644,0.4022062719,-0.0895398408,-0.0312876664,-0.1459521949,-0.2195771188,-0.0427325107,-0.0524200648,0.0737688392,-0.1997643411,-0.0817841738,-0.1164104939,-0.0688184798,0.0219419133,0.1609364152,0.1783035696,-0.1586503983,0.0579206906,-0.2017430663,-0.1270523965,0.0350132249,-0.09435229,-0.1086314395,0.3160071969,-0.0100594526,0.1162735373,-0.0842444077},{-0.036821384,0.2499729097,-0.1199045926,0.1225247756,0.0055319848,-0.0840525255,-0.0329598673,-0.0594502576,0.0380834602,-0.1596081406,0.0232252236,0.3078778982,0.2259797901,0.2378669679,0.2057573348,-0.1351412386,0.0121039785,0.0137199825,-0.1455665827,-0.227043882,-0.0709537789,-0.2539479733,-0.0129452366,0.3250616193,-0.1926936954,0.028724473,0.1688523293,-0.3891584575,0.0690469742,0.0075340555,0.1572418809,-0.0858760327,0.059438359,0.126826629,-0.0988387838,0.1252950877,-0.1045783013,0.0786933899,-0.3306742907,0.0886775851,0.1094976068,0.165600419,-0.2053691596,0.0171453152,-0.2919773161,0.0147396279,-0.1266943514,-0.2781884372,-0.0357486494,0.0414734781,0.1268458366,0.0371882692,-0.1472777873,-0.0991358384,0.1096939668,-0.0549654402,-0.2197636068,0.0347104669,0.0318727456,0.0650542825,-0.0473668128,-0.1487566084,-0.0495800935,0.0154800406},{-0.1039647311,-0.0012956753,-0.1195113212,-0.0280407406,-0.08475288,0.0611098967,0.069239974,0.1051893607,-0.1300917119,-0.1186373681,0.0534869097,-0.0723137781,-0.0761315525,0.1065532193,-0.6102765203,-0.0998054966,0.5503015518,0.0259890202,0.0035090242,0.0653303564,-0.1277407259,0.1196588203,0.0035740128,-0.6247336864,0.0434882529,-0.1510528475,-0.290447861,0.1620074213,-0.10663414,0.1128813699,-0.0856708288,-0.2580630779,0.1153766513,0.0237592254,-0.1615664065,0.01792817,0.0122635355,-0.1475783885,-0.0890713036,-0.068608962,-0.0416411348,0.1974154264,-0.655628264,0.0558995046,0.1644048393,-0.0917565525,0.1007940248,-0.0223055873,-0.1108183637,0.1308162957,0.0147359483,-0.0643219501,-0.0841456652,0.087715961,-0.133835271,-0.1495498866,0.0900870711,-0.0843361765,-0.038056992,0.0030733007,0.2972511053,-0.0239788331,-0.0623787455,-0.1166200638},{0.5988481045,0.0845208168,0.0453811102,-0.1887615323,0.0425775014,0.0125932647,-0.0211166888,0.317186892,-0.1573695391,0.015209347,-0.1093889251,0.2230899036,-0.0273377225,0.0666843206,-0.6494668126,0.0340697914,-0.4912453592,-0.0774040446,0.0122153815,0.0520688221,-0.0069691427,-0.0315275043,-0.0159604959,0.0217594784,0.0905412063,-0.0315551572,0.4112541974,-0.3457318544,0.0663579255,0.0743144825,-0.0498012267,-1.1052848101,0.0103207668,-0.4469450414,0.0547483191,0.2139871269,0.020165313,-0.2491603643,-0.1015731841,0.0125077385,-0.0643510967,0.0325161219,0.4953980744,0.0140366964,-0.1975485682,0.0216375683,0.1847455204,-0.0130298901,-0.0699997395,0.0037811075,-0.0143841542,-0.0636522993,-0.0385527425,0.0493235253,-0.0371253639,-0.2060310841,0.0982862413,-0.0079956874,0.1282302439,0.1267433465,-0.7191818357,0.0092141489,-0.1156701446,-0.0299741905},{-0.0712780431,-0.0687927231,0.0188831761,0.0427306853,-0.0711060315,-0.1139431894,-0.097487554,-0.1055013984,0.1128647998,0.0792242736,-0.0160611942,-0.0657359287,0.0785500258,0.0917104036,-0.5850236416,0.0033749903,0.6028117537,-0.2322196364,0.0375663713,-0.0152880317,0.0608328171,-0.3293469548,0.0646874309,-0.8482849002,0.1082175225,0.0310628861,0.3828680515,0.0255102608,-0.0429730564,-0.0874080285,0.1369211525,0.188330099,-0.1330199987,0.6894744635,-0.1140392348,-0.0434399322,0.0075780917,0.0620436147,-0.0645164847,-0.0241519138,-0.0461801477,0.0151513666,-0.6619813442,0.1007485837,-0.2182795256,0.0951872692,-0.1455801427,-0.1966482252,0.1328142881,-0.2352595478,-0.0848186985,0.0275438875,-0.009032879,-0.0830603465,0.0741081089,0.1704667658,0.0455627255,0.0147687094,-0.0769628808,-0.1617068946,0.6860963702,-0.0942133442,0.0490534119,-0.0036248167},{-0.6233885884,0.0156691261,-0.207388103,0.0209340695,0.0843606815,0.0228272844,0.0558897778,0.2872039378,0.0308743715,-0.0250524394,0.0623068362,0.2735394537,-0.0342649445,0.0233799517,1.2174066305,0.0388615802,-0.3163045645,-0.1330137104,0.0156398509,-0.052711606,0.1543334574,-0.6325150728,-0.1244161054,0.7003996372,0.0387392156,0.1309391707,-0.1197669059,0.0010975862,-0.0904985741,0.0214035325,-0.1038450077,-0.4546171427,0.0654464141,0.0439911038,-0.0882834718,-0.022590166,-0.0363057815,0.4271778762,0.0824764222,0.0172080081,-0.025417272,0.1684094369,0.456592828,0.0322014615,-0.1091674268,-0.0471325256,-0.3529124558,0.1515924484,0.1113984734,0.0464689918,0.0439276583,-0.0836107731,0.0371252112,-0.0919520557,0.0451982021,0.2757666409,-0.0709755272,0.0150940521,-0.1515880972,-0.0060018939,-0.8225747943,0.2396505624,-0.0058699166,-0.0124320788},{-0.3113098443,0.1999819577,0.0061206282,-0.1690056622,0.1985770613,-0.0188060906,-0.1252848059,0.2881395221,-0.0921255648,0.0251710955,0.0987599269,-0.0526840612,0.0142076453,-0.0731227025,0.436087966,-0.1051883548,-0.3075236678,-0.0779821724,0.1761689931,0.0548497252,0.0621557422,0.499045372,-0.0154844504,0.21228154,0.1306920797,-0.0143136065,-0.216324389,-0.114116542,0.0387548059,-0.0348600671,0.0811287835,0.7615705729,-0.1017083302,-0.3869172335,-0.1223641559,-0.0280137248,-0.1213770136,0.0353456326,0.1927290559,-0.1589637995,0.0306663997,-0.2347987741,0.0092355525,0.1533450335,0.0382320844,0.1398682594,0.2760236859,0.3448241651,0.0455393791,-0.0144863483,-0.0080979727,0.0211624857,-0.0571424961,0.1316864043,-0.0850915834,0.2449984998,0.0401451401,-0.0920073614,-0.0349279977,-0.2501213253,0.5993976593,-0.0192805901,0.0805998221,0.2551327944},{-0.5425685048,-0.3592162728,0.1424527764,0.0630672574,-0.0066177952,0.0719797909,0.0144426832,-0.0682807788,-0.1155532077,-0.0699596703,-0.0339341387,0.2304317206,-0.0865401775,-0.1449657977,-0.1752349138,-0.0271439664,-0.2437454313,0.165853709,0.2155355364,-0.1054533496,0.0160328615,-0.0981424451,-0.1056888327,0.3156377971,0.0174498074,-0.0040784553,0.3824980557,-0.0502777919,-0.002239198,-0.1604094356,-0.024176456,-0.8071078062,-0.0237785317,-0.4072985947,-0.0414799936,-0.1101297587,-0.2883616686,-0.0706406087,-0.6405521035,-0.1057421342,0.0564766154,-0.1783519238,-0.0576790087,0.1417165101,-0.0822582543,-0.1294594109,-0.1333793104,-0.5686033964,0.0350684822,0.0819957703,0.245263204,0.0306877121,-0.0333718546,0.0626904368,-0.2486853004,-0.0065820417,0.0333616436,0.0480871238,0.2267221659,-0.1334853023,-0.7879049182,-0.0441160575,0.0038833057,0.09665595},{-0.3222094774,0.0097255837,0.0194379669,-0.0433860421,-0.1057649702,0.0010149566,-0.016464889,0.0084725386,-0.0028268073,-0.015581347,-0.0400183573,-0.3823846281,0.0092572682,0.0138399033,-0.8267766833,0.0359926522,0.0877802819,0.0050216354,-0.0086571071,0.0075428295,0.0113608036,0.3159733117,0.0141057381,-0.3034124374,-0.0288769007,-0.0161057301,-0.2552956641,0.2890696824,0.0002357545,0.029726848,0.0164273605,-1.2012193203,-0.021664165,-0.0469392985,-0.0215529446,0.0027900257,0.009077413,0.0035644551,-0.1451702863,-0.006154947,-0.0085426653,-0.0084860204,-0.5269888639,-0.0070631714,-0.0491606928,0.0067388597,-0.3414766192,-0.0116408374,-0.0380585603,0.2082011998,0.0213796496,0.0085993716,0.0030626021,-0.0096737808,-0.0068053151,0.4277691841,0.0015259535,0.0148419375,0.0059185172,-0.0219893567,-0.9800351262,0.0118145477,-0.0241597481,0.0001079653},{-0.176059261,0.0365030058,-0.1419726163,-0.1735046059,-0.1035001799,0.0764720142,0.0236984547,0.007035376,-0.0615798533,0.1532723904,0.0456310995,-0.150244534,-0.0250430331,0.182175979,-0.0926283002,-0.1276236176,0.126187399,-0.0155255077,0.0228910614,-0.0719111562,0.0263589472,-0.4746483862,-0.1871417016,-0.4645772874,-0.1564504653,0.0266118236,0.1738529652,0.2823576629,0.1287695318,-0.0216911696,-0.0715753958,-0.0795662776,0.0242125709,0.2575424314,-0.0098200059,-0.1009495631,-0.1040422395,-0.064988941,0.1400159597,-0.1664094627,0.0162824802,-0.0052961651,0.0602849722,0.0714626759,0.0877171978,0.028427029,-0.0244563576,-0.0296640135,-0.0240322631,0.2049603313,-0.1044233218,0.0465342775,0.1413327008,0.023095252,-0.0353841335,0.0668474138,0.0882480666,0.2760187984,0.1256920844,0.0584719293,-0.0103838947,0.0680827498,-0.0787133723,-0.0180907119},{0.0065345434,-0.0112022553,-0.2579904795,-0.0793626755,-0.1767132431,-0.0069856197,0.0459468588,0.3427381814,-0.0515900552,0.066974923,0.1831955016,0.2184861004,-0.0624311715,0.0144074643,0.4567543566,-0.1024370417,0.1056327224,0.0116415489,-0.1093881428,-0.2239990681,-0.0187928621,-0.1793123633,0.055745285,0.2623469532,-0.0407051183,-0.0157619081,0.0650369227,-0.1418732852,-0.1598917544,-0.0473301522,-0.2333109677,-0.1571451873,-0.081997484,0.1526670009,-0.1471912861,-0.1844707578,0.1857175827,0.323654145,0.0950543657,0.0446912199,-0.0743869096,-0.0938958153,-0.2229066938,-0.3677715957,-0.1805369854,-0.1426461488,0.0749999434,-0.0326429345,0.1630498171,0.1722912341,-0.106610924,0.1300078034,-0.0578511469,0.1918497086,0.0460622199,0.0783834606,0.0079549747,-0.1226808205,-0.0044180765,0.0222081393,-0.2360036522,-0.0611615703,0.0097482102,0.1195043698},
											 {0.2798848748,0.0163544882,-0.2113313228,0.0067039365,0.1321994662,-0.0104109896,-0.1607400775,-0.4398034215,-0.1369001269,-0.0545844957,0.0362965688,-0.3413788676,-0.0216120631,0.2615441084,-0.0024213593,0.0739113092,-0.1138982549,-0.1788911223,0.1059933528,-0.0133000752,0.1045037583,0.5417915583,-0.1599249393,-0.2855980396,-0.1011884511,0.1547266841,-0.2802973092,-0.0818148181,-0.0379927531,0.0045211632,-0.2274861783,1.3697443008,-0.1123395711,0.2965100706,0.0308425315,0.1571535021,-0.2691626549,-0.1506940275,0.2379505783,-0.0341169126,0.2143148184,0.0265794694,-0.116548419,-0.266917944,-0.2287298292,0.0312634632,-0.003038093,-0.0564702153,0.0214063078,-0.0087462738,0.0026287509,-0.1149127856,0.0818987042,-0.0368381105,-0.1538467407,-0.09112937,-0.1583390683,-0.0808258653,0.0332435444,-0.0728253499,1.2535949945,0.0741042793,-0.1538181156,0.0369128585},{-0.6272848248,0.0513749495,0.1756541729,-0.13225694,0.0669261739,0.010556737,0.2952162921,-0.1133936718,0.0583012141,-0.0016501105,-0.1350864172,0.0255939011,-0.0628125817,-0.092564851,0.4423728883,0.0442204662,0.3723224998,0.1535021067,0.2065878659,0.0276887249,0.1463284642,0.0053811725,-0.0954713002,0.1135126203,-0.0726598054,-0.2013963014,-0.0427839905,-0.0548621118,0.0000438898,-0.0631336644,-0.1614246815,1.2058284283,0.1174356863,0.7636799216,-0.0419079214,0.1970504224,-0.0403788947,0.3153781593,0.0630450174,0.1129518151,0.118899636,-0.0613683574,-0.6031711102,0.009918265,-0.0448518805,-0.1352458894,-0.2495944202,-0.550611794,0.0756535754,-0.01734454,0.1988690645,-0.0511375964,-0.2360842228,-0.0742002726,-0.1869967729,0.3782412708,0.0318221226,-0.0545185655,0.234867394,0.1341831386,0.8518848419,-0.117748037,0.0851654038,-0.0178387184},{-0.0838067532,-0.0524366945,0.1166879535,-0.0445510149,0.2677295208,-0.1473089457,-0.0159961488,-0.3734309971,-0.0582304746,0.1417934,0.1451522261,0.2169256061,0.1092988402,0.1322210431,-0.0379259773,0.0186383352,-0.3743327558,-0.0427955911,0.0369258374,-0.0894072354,0.1518158913,0.7306131721,0.0774560794,0.2482216805,0.1824150681,0.0341463126,-0.1744243354,0.2984187901,0.0187024642,-0.1378659457,0.0405329987,-0.5722413659,-0.0553865097,-0.1841253191,-0.1057291999,-0.0921690017,0.250092119,-0.1345085651,0.0331054032,0.0753316283,0.0943399593,0.0574716851,0.7121590376,-0.124713093,-0.0496714711,0.0366078354,-0.380312562,0.1087962762,0.158480376,0.1746426523,-0.0671295002,-0.0581992716,0.1776284128,-0.1520196795,0.1406777501,0.0171807371,0.1495514065,0.2679208815,0.0628293455,-0.0982518196,-0.7925879359,-0.1122039706,0.0028636125,-0.1975552589},{-0.4921813607,-0.0110228201,0.053482309,0.0697109625,0.0158036519,-0.0155753978,-0.0381741561,0.0122401323,-0.0861016512,0.1103975177,0.0016341264,-0.2162174881,-0.013331661,0.0406372845,-0.1669737697,-0.0108149676,0.7007924318,0.0279021244,0.0681046396,-0.053465452,-0.1008349285,-0.2641955912,0.0378833972,-0.2794772685,0.1148298532,0.063960813,-0.2341079116,-0.0196845941,0.0130874692,0.0359825008,-0.1478100717,0.7254495025,-0.0346798077,0.723425746,0.0567072928,-0.1244427413,-0.0266681127,0.5482382774,-0.377461195,-0.0290085115,0.0323578306,0.0185559448,-0.3865390122,-0.1077210903,-0.0416474491,-0.0729738846,-0.3336938918,0.0516506284,-0.0250692647,0.0551589653,0.0337710716,0.0471407846,0.0239150636,0.1039641947,0.0442698635,0.3381061852,0.0182778109,-0.0013265832,0.0480587557,-0.0069066836,0.876103282,0.1273038089,0.0127539262,-0.0261244345},{-0.0870115682,-0.0437740609,0.1769559681,-0.038645383,-0.0777397081,-0.1004275009,0.1009780169,-0.2265510559,0.0829916447,-0.0320669673,0.0708715841,0.0565715022,-0.1955679804,-0.0545188524,0.2543508112,-0.0047679581,0.5881019831,0.0718066618,-0.0419890098,-0.0590709224,-0.0102904439,-0.0076556518,-0.1811097115,0.3481048942,-0.0209494997,0.0516620278,-0.1997426152,-0.26403144,-0.1296549737,-0.0573880859,0.0981861502,0.0138692968,-0.1446021199,-0.1133646742,-0.0015377187,0.145635128,0.0273367018,0.5414075255,-0.3740763068,0.0435431227,-0.159447968,-0.1108699962,0.2786684632,0.1614135951,0.0424404666,-0.0450927205,-0.6520677805,0.8322823644,-0.020030085,0.170372501,-0.124374494,0.1151840985,-0.0526012667,-0.1147803441,0.0014093685,0.5699626207,-0.1620987952,0.1056342125,-0.010533737,0.0474432297,-0.3639234304,0.1497426629,-0.2163024247,-0.0706531331},{0.4344755411,0.0535999089,-0.1044625491,0.0183611754,-0.1482268721,-0.0337057784,0.0711814836,0.0687775388,-0.0166562535,-0.0976910368,-0.0168408938,0.0337790288,0.0487785526,0.0790790766,-1.1375309229,0.176524356,-0.116773054,0.0211324356,-0.0125262225,-0.0031672267,0.0960737541,0.3147798777,0.0195776299,0.2209745049,-0.0068281493,-0.113139987,-0.365690738,-0.1073345244,-0.0755026788,0.0146486713,0.0906360894,-0.7858965993,0.0634750798,-0.5658990145,0.0675980225,0.0209894478,-0.0822478607,-0.2901906073,-0.8667900562,-0.0227558836,0.033230681,-0.0597558729,0.1964439005,-0.0555093251,0.0575230867,-0.0016536872,-0.1952172667,0.1802328676,-0.0022275085,-0.1203497127,0.0480302274,-0.0603700913,0.0292663109,-0.1065766066,-0.0840847865,0.3633754253,-0.0774978325,-0.1610394269,-0.1145829931,0.0322293341,-0.8212965131,-0.0651679784,-0.0331805646,-0.0691547915},{-0.065122284,-0.0435794927,0.0067071305,0.0024117553,-0.406514436,0.0359106548,0.0192977637,0.0724025592,0.0369315892,-0.0048588663,-0.0382458083,-0.1117969751,-0.0281567127,0.006161212,1.2613828182,0.022394808,-0.1520953476,-0.0515078492,-0.0013907967,0.0171042774,-0.0037466974,0.1672125012,-0.006536793,0.3602303565,0.019512143,-0.0136457924,-0.176731661,0.0888210461,0.0048070922,0.0217988268,-0.0341769233,0.9647296667,-0.0064667165,0.6889721751,-0.007403831,0.0069468687,0.0076535554,0.1993544549,0.3845976293,0.0738283396,-0.0042428495,0.0331721678,-0.2638603151,-0.0179426987,-0.0720007792,-0.0367732868,-0.2422772199,0.6153783798,-0.0400193036,-0.3077495992,-0.0094566541,-0.0145556526,0.0172125231,-0.0132725975,0.0232172459,0.336302489,-0.0089894971,0.0215259995,0.0502364412,0.0222100038,0.2858601511,-0.0052140257,0.0071346322,-0.0056453929},{-0.2704021931,-0.030618811,-0.162215814,-0.0417043753,-0.0980563909,0.1237142757,0.0201314259,-0.2334385365,0.0665291622,-0.1357509643,-0.1533030421,-0.0717018694,0.1242423281,-0.1282346547,-0.1699589044,-0.0802197978,0.1754592508,0.1423623413,-0.0190460235,0.012714196,-0.0160334446,-0.3615073264,-0.0042476449,0.2966609597,0.1186798215,-0.0068265526,0.4100750387,-0.2007374465,0.008589494,-0.046930965,0.0724806637,-1.0245810747,0.0260285325,-0.3820806444,0.0540736504,-0.0287452042,-0.0408084989,0.1811600477,-0.0915529951,0.044076845,0.0720734149,0.0013192334,0.2389349937,-0.0844640359,-0.0609288849,0.134111613,-0.0890173018,0.1412128508,0.0490595885,-0.1940011978,-0.0353066958,0.0923409089,0.1635331064,-0.0041045547,0.1396576911,0.4577699006,-0.0512553789,0.0055716489,0.2017904818,0.15179874,-1.0310250521,0.0359258316,0.0115968473,-0.1044833362},{0.8578847647,-0.162562266,-0.0694274828,-0.2922852635,-0.1692016423,-0.0529038683,0.2073512375,0.3736848235,-0.0028983082,0.1501177847,-0.0251606107,-0.1562199295,0.1283853054,-0.0011859554,-0.0742353722,-0.0130368592,0.0207738467,0.0580718815,0.0135524264,0.1982581615,0.2505922318,-0.4080702364,-0.0805611685,0.0526743755,0.0787796751,0.2816371322,0.1847738326,-0.6456409693,-0.1641029716,0.1534518003,0.1807828695,-0.4182810187,-0.0400337353,-0.4148508012,0.0707850531,-0.06420248,-0.0488468409,0.0065441928,-0.4219883978,-0.1742119342,0.0706434771,-0.0071348562,-0.2208054215,0.1498377323,-0.0229227524,-0.0214585289,0.1893262714,-0.1112506688,-0.0133730602,-0.1523347646,-0.0176441539,-0.1733712256,0.0526664071,0.1145745441,0.0549664721,-0.4546441436,-0.0993594676,-0.0707340613,0.0162796453,0.0444436856,-0.0337374955,-0.0049080849,-0.0098879291,-0.0036115139},{0.4234504402,0.0475769378,-0.1130249277,0.0832327977,0.2842342556,0.0574921034,0.0064167348,-0.3375964463,-0.0679706559,0.1233197749,0.1318860203,0.0951034203,-0.0306044314,-0.0127811087,-0.1797537208,-0.1149474084,0.2451212406,-0.1735429466,0.040722277,-0.0526693054,0.0719405934,0.294772774,-0.0491481461,-0.993878901,0.1085407212,0.0622714199,-0.0914672762,-0.1533891559,0.0633654892,-0.1369529366,-0.0013231793,0.677256465,-0.0634377748,0.3283503354,0.1066616476,0.0150043136,-0.0340378173,0.1404805481,0.0119383615,0.0498851873,-0.0575089157,0.0844862834,-0.1246063039,0.116532661,-0.0590778627,0.0002650596,0.1596094668,0.1663219333,0.1365953386,0.0724153072,-0.0187036004,-0.0235355347,-0.0003469833,0.1438744366,0.0528555214,-0.61336869,0.0643273965,0.0015636133,-0.0173223447,0.1216507554,1.0002837181,0.2015059441,0.0663266927,0.0058860322},{0.4144025743,-0.012682626,0.0224169139,0.0740608796,0.0213451609,0.0082797548,0.0955547914,0.1468828321,-0.0325787701,0.138630867,0.0124406638,0.3151473403,0.0200484134,0.0138122123,0.6679247022,0.1721050441,-0.0468700342,-0.0036988868,0.0139020309,0.0895516872,-0.1045090482,-0.2455282956,0.2526613772,0.6837813854,-0.0363170728,-0.0227630977,0.1245425567,-0.3619322181,-0.0115148593,0.0784701034,-0.0645978004,0.0479693189,0.1508823633,0.0127978399,0.0743829682,-0.0226092413,-0.0424594805,0.3846389651,0.0762982443,0.0508199297,-0.2197907567,-0.1017978787,0.0527228937,-0.1260151267,0.001632261,0.0747878179,-0.2921610177,-0.148205176,0.3152154684,-0.0977270007,0.0058620959,0.3402346373,-0.1356081516,-0.1231753081,-0.1264475584,0.1464253962,-0.265062511,-0.002560846,-0.0506075397,0.1013170481,-0.1498014033,0.0541035868,-0.0833330825,0.1219201013},
											 {0.2976765931,0.0504519641,0.0544452108,-0.0305085629,0.0634554774,-0.0127340127,-0.0515827686,-0.2118802369,-0.042730391,0.0024154645,-0.1266289353,-0.0928164274,-0.0371101648,0.01886902,-0.5315219164,0.0591606423,-0.0601091944,-0.1540944129,0.0906114057,-0.0729198083,0.0128084207,-0.5126540065,-0.0266430583,0.6775012612,0.0322579592,-0.002973988,-0.3159943223,0.0705253705,0.0155734085,-0.0286209006,0.0109159658,-0.7222243547,-0.0712958872,-0.4912272692,0.0552191213,0.0071829581,-0.0276106577,0.2530848682,-0.1849966496,0.0336198099,-0.0144494884,0.0229131635,-0.3383920789,0.0226322599,0.0580266155,-0.0436010882,-0.4160830975,0.3665221334,-0.077253513,0.2463541329,-0.0212951116,-0.1061238572,0.0064433808,0.064549908,0.0622856393,0.2425805032,0.0244306289,0.0303949751,-0.0273557138,0.0894155875,-1.019982338,0.203109175,0.0271579046,0.0761011764},{-0.303137064,-0.1706854403,0.097465463,-0.1334180385,0.1131548882,0.0669908226,0.0381875746,-0.2078866959,-0.0246698204,-0.042948585,0.2506754696,-0.1055825427,-0.0238172226,-0.0699937418,-0.2298294157,-0.0771398246,0.1434033364,-0.0044566714,0.045637615,0.1516559869,-0.2030434012,-0.1226597503,0.0009899649,-0.6503055096,0.0763281807,0.1279429346,-0.1394910067,0.39411062,-0.1323813498,0.0626066104,0.2620125115,-0.0618443601,0.2006045282,0.1489989758,-0.1214986891,0.0459995978,-0.0753523409,-0.3907592893,-0.0729364157,0.0914960727,0.0166957919,-0.1240394413,0.3338117898,-0.0486780703,-0.0117648104,0.0535788611,-0.0199283473,0.1192318574,0.0411003493,-0.1695815325,-0.0832719281,-0.0426897369,0.0304318089,0.1032956094,0.0546008684,-0.0815822035,-0.0554157943,-0.1613742113,0.2467172593,0.0650881752,0.2197826505,0.0327330194,0.062646918,0.0963674188},{0.000299391,-0.206108585,-0.0312997438,-0.0210727639,0.2106085718,0.0782346502,0.0019539287,-0.0465637967,-0.1193257645,0.1174589917,0.0382457413,-0.0095219463,-0.1293972284,-0.0758734792,-0.0041885325,0.0504369326,-0.0098328758,-0.0081161084,-0.0034076583,-0.1248506606,0.0594158806,0.105230853,0.1186201647,-0.0271317419,-0.1263217777,0.0350967608,-0.0693805665,0.0991039053,0.1360418051,-0.1717149019,-0.1188015863,-0.0135549502,0.1392944306,0.0858852938,-0.0012549353,-0.0093300054,0.0038868387,-0.0333924182,-0.0659441277,0.1824470013,0.0623524822,0.0155700687,-0.089604564,0.2134820968,0.0381513797,0.1390188634,-0.0254350025,-0.0434914567,-0.0495069474,0.0727253929,0.0852538347,-0.036860805,0.1091983318,0.0922765434,-0.0939197391,0.0322203673,-0.2253588289,0.0241804458,-0.1042795256,0.0140203238,0.0026542859,0.1144922003,-0.0258859266,-0.0122901546},{0.7445213795,0.0466194302,-0.0409286059,0.0395164043,-0.0679057464,0.0780046657,0.0188166033,0.4142287076,0.0644422174,0.0342305973,0.0427767001,-0.3838324845,0.029259745,-0.0593513325,0.2428972423,0.0038377331,-0.1343033314,0.0243673883,-0.0648962632,-0.0460338369,0.0300722048,-0.9380141497,0.0280320272,0.8571307659,-0.107662417,0.0104082786,0.0187018104,-0.5204453468,0.0358398408,0.062591143,0.0483004451,0.2830999792,0.0178954192,0.0412605554,-0.0144511089,0.0156203527,-0.0320689157,0.5474388003,-0.1290969104,-0.0031237307,0.0754907206,-0.0445937589,-0.0569293648,-0.0587611087,-0.0599500462,0.0050360062,-0.1446315199,0.9937297702,0.0102515109,-0.2667672932,0.0757051557,0.0355677158,0.007159031,0.0427970514,0.0507271141,0.6763449907,-0.0350533687,-0.0210518949,0.060970813,-0.1122453287,-0.2135822028,0.0465599485,-0.0008938027,0.0017754093},{-0.0272383261,-0.1629560888,0.0627675205,-0.0690464526,0.1416459829,-0.048100695,-0.0254452694,0.5670044422,-0.0791294798,0.0583188422,-0.0225014891,0.3411293328,0.1497911364,-0.0488392673,0.6635090709,-0.11799822,0.3816577494,0.0642603487,-0.1033251807,0.037743181,0.037617024,-0.0262762476,0.1746497899,0.3847081661,-0.0696077272,0.1234664023,-0.2991598248,0.1147683486,-0.0656160638,-0.0500953123,0.0485101007,-0.1478558779,-0.0477703884,0.3064670861,0.199704349,0.12270917,0.0212434158,0.4982965291,0.041760724,0.0859209448,0.2438035756,-0.1184056103,-0.324596554,0.0265264995,0.0494992658,0.1361777037,-0.0894646198,-0.0242627896,0.1783524305,-0.0107282624,-0.120411925,0.018580053,-0.1476241648,-0.0225262865,-0.1135086417,0.3473058641,0.1879047304,-0.0343812443,0.1408809572,-0.1092236191,-0.4112635255,-0.1065078899,0.0816447362,0.0167671163},{-0.1980153024,0.0667228922,-0.006955788,0.1006226912,0.1663994789,0.1547613293,0.1356963515,-0.6558038592,0.1192170605,-0.1795238703,-0.0274256133,-0.1736735851,0.1207233667,-0.1025137827,0.2484090328,-0.0712668151,-0.2364671975,-0.0134268496,-0.0398144722,-0.0055274814,0.0329299606,0.2237286568,-0.0739196464,0.0157709084,0.0294243824,0.0069233584,0.2544723451,0.147632286,-0.039642036,0.1245604753,0.0349264666,1.4553296566,0.026632918,0.7658498883,-0.12762703,-0.1617833078,0.0531526171,-0.1166376993,-0.0740575194,-0.1765652001,0.0464897268,0.2383929938,-0.3957409859,0.0493884869,0.0040546283,-0.0143356873,-0.6676413417,-0.7750557661,-0.1119908988,0.0470826328,0.1002499834,0.1298739314,0.1067010164,-0.0442132726,0.0814979598,0.203523159,-0.0736846849,-0.0855869725,0.2599100471,0.0766801983,0.4999950528,-0.1684673429,0.1346409023,0.0955018774},{-0.1539815068,0.0077035953,0.0252969079,-0.0567049421,-0.0584836304,-0.003681893,-0.1208713502,-0.239824295,-0.2384503633,0.0225002896,0.1320219487,0.0216543823,-0.0499895364,0.0316203088,0.633330524,0.0567610599,0.1718520969,0.077278696,0.0970976651,0.0139846895,0.1221345291,0.0147617217,0.044865936,0.5798224211,0.0771670491,0.1109446287,-0.0067884615,0.2104141861,-0.1230956391,-0.0429958031,0.0760001838,0.0935741365,0.0149183692,0.4766202569,0.0774974078,0.076405406,-0.1947842389,0.3574579358,0.3700683415,0.0397823788,0.2217901051,-0.1841359884,-0.0635847449,0.0162408818,-0.0907966346,-0.1028990373,-0.6465919018,0.1335377246,-0.1866010129,-0.1088747829,0.1611242592,-0.0677413866,-0.0393414944,0.1502095163,0.1143211722,0.4040797353,0.0748660266,-0.1262519509,0.2015088797,-0.0042215851,-0.388815999,-0.0764681995,-0.0153348092,0.0550234541},{0.0283322595,0.006182272,0.0668760613,0.0127304047,-0.1957569718,-0.0017901512,0.1033396199,-0.163462013,-0.1348020285,0.0448400639,-0.071731098,-0.133654654,0.0397554934,-0.0580278896,-0.2400033027,0.042116534,-0.0498872064,-0.1258070916,-0.0242553521,0.1464153975,-0.1399075985,-0.109349817,0.0126198912,-0.1118547171,-0.0597882159,0.1952600181,0.1407966614,0.1169682741,0.1068106443,-0.0457372405,-0.0539062619,-0.0995246693,-0.1071006954,-0.1179743409,-0.0307635721,0.1583936661,-0.0718859658,-0.0370254256,0.1463256776,-0.1852281392,-0.2295964211,0.0228369962,0.1800509542,-0.099845022,-0.0808795914,-0.0424169898,-0.0672248751,-0.1049677953,-0.0062589706,-0.0633173957,-0.0450956747,0.1584780812,0.0701628104,0.1090199426,-0.087608166,-0.0386072174,-0.0810648501,0.0471753627,-0.1092947349,0.039834585,-0.0364037454,0.0602165125,0.3125742972,-0.0852304772},{0.4144353569,0.1058186889,-0.1824560761,0.003465398,-0.0358669013,-0.157263279,0.0981120989,-0.188848272,-0.0150161292,-0.1001100764,0.1739477664,-0.4778855145,-0.0626404807,-0.0495813787,-0.1805376261,-0.0256242622,0.0010910397,0.1499479264,-0.0699587464,-0.1802830845,0.104458876,0.1523210853,0.0419543013,0.0089284806,-0.1138548106,0.0336093381,-0.2242585123,-0.0659813136,-0.086963743,0.147137776,0.0352968313,0.1798283458,-0.0481136516,0.2596702576,-0.1214126945,-0.0746930391,0.1336985976,-0.2027163953,-0.0081803184,-0.0632304847,-0.0825854838,-0.0539009385,-0.7384899259,-0.0862308741,-0.1190585569,0.0765199289,-0.0489505976,-0.6480439305,0.283934325,-0.1022431031,-0.0754002631,0.0572703481,0.0085909441,-0.0285896882,0.0591618381,-0.1786549836,0.0824027061,-0.0826433226,0.0004936865,0.1347095817,0.2587798536,-0.0028865275,-0.0338715389,0.0143133178},{-0.0732135922,0.0355445445,0.0475693867,-0.0267675873,0.1096979231,0.2080800682,-0.2224579602,-0.0994830355,0.0201576278,0.0118169002,0.1463115513,0.1133468822,-0.0344224125,0.1564371586,0.0848631039,-0.1344173402,0.266643405,-0.287378341,0.0995839238,-0.0629748255,0.1289092153,-0.5817983747,-0.0218776278,0.6451052427,0.0493056215,-0.0832051486,0.0669259951,-0.6323891878,0.1087735295,0.0241224375,0.0651945025,-0.4873974323,-0.02304307,-0.036602594,-0.0646318868,-0.0858929455,0.1098692119,0.4690288007,-0.4998061955,0.0045714662,0.0594838932,0.0378970727,-0.0862808377,0.0939925164,-0.2035047561,-0.09811306,-0.3518061638,-0.0434518047,-0.0802343488,0.0950362831,0.120035097,-0.0429279283,0.1920009851,0.089530237,-0.2183317095,0.4300790429,0.199744612,-0.1704926491,-0.0002793645,-0.121787563,-0.6606646776,-0.0404468924,0.1302799881,0.1376658827},{-0.5023869276,0.0372852422,-0.103146024,-0.2166006267,0.0140071502,0.0917690843,-0.0072815805,-0.7395269275,0.0510519408,0.0112890983,0.1459608227,0.2936032712,-0.0916122794,0.0655104667,0.0252245497,-0.0186105333,0.1243796647,-0.0438365862,0.0267270207,0.019164959,0.0823284686,-0.1485041082,-0.080512628,0.2476671785,-0.1839016825,0.1229570955,0.1997057498,-0.0855780318,0.0556411594,-0.0462537184,-0.0494687706,-0.1127546504,-0.1256413758,0.4853705764,-0.2140811533,-0.0156339854,-0.0140915057,-0.0497716889,-0.4223166704,0.0462152809,0.0206349511,-0.074476622,-0.4590885341,0.0388396084,0.1274535656,-0.0077076936,-0.3989326656,-0.5688860416,-0.041852735,-0.0931377783,0.091222167,-0.0489671826,0.0361695886,0.109980166,-0.1388424486,0.2261105478,0.0194296129,-0.1466861963,-0.0715229437,0.0360109806,-0.1877678335,0.1343974918,-0.1590742916,-0.0196921844},
											 {-0.2299629897,0.1759907305,-0.0797304511,-0.011008935,0.1178902164,0.0542394444,0.1714253128,-0.4833021462,-0.1345442683,0.1414224952,0.0493163317,-0.1784860939,0.0439700894,-0.1325014681,-0.5329706073,-0.1116394401,-0.4088315368,-0.0963375345,0.0391621292,0.0194512922,-0.1004181132,0.3388984203,-0.0125250667,-0.0537051409,0.0887160078,0.1595293432,0.376511991,0.308178097,0.104060106,0.1511103064,-0.175742507,-0.4186930358,-0.0887101218,-0.40603742,-0.1843996197,0.0492741577,-0.0731877163,-0.2773509622,0.1525408924,-0.0737348497,0.154190734,-0.1006795689,0.8735111952,0.0830340609,0.2795571387,-0.1396903843,0.0346755646,0.0155669181,0.1613430679,0.0600418858,-0.0382674523,-0.0664910153,-0.1805674136,0.0027010238,-0.0797479376,0.0209886525,0.0499602631,-0.255105108,-0.0517103374,-0.1110448837,-0.3229653835,0.145271793,-0.0274374783,0.1836589724},{-0.0977511778,0.0033489303,-0.0067798281,-0.0353012197,0.2995717525,0.0704152659,0.2586244047,0.7112781405,0.0649810508,0.1264905035,0.0471628569,-0.1868972331,-0.0073745809,-0.0682296231,0.875662446,-0.0367286243,0.3029342294,-0.1080801561,0.0087989261,0.120454967,-0.0270325523,0.1670716852,-0.4041875303,0.3794603348,0.1593203545,0.0968964174,-0.1743124872,-0.4412248433,0.2386003137,-0.1668141335,-0.0866320133,0.7566554546,0.0797629356,0.0689013451,-0.218596071,0.2148297578,-0.0403743647,0.3134354055,-0.0673689693,-0.0428079441,-0.151290223,-0.0294624027,-0.6348836422,0.0086204475,-0.0806380659,-0.0390305258,0.2505358458,0.3554496169,0.0566545799,-0.0143506881,0.0346008055,-0.0894513354,0.0963911042,-0.0868015289,-0.0972835496,0.3144290149,-0.0770908371,0.2076762021,0.1108503193,0.0826938376,0.437872678,-0.0090373242,0.1752292961,-0.0291606206},{0.2176077068,-0.0212041084,-0.1312512457,0.0640185624,-0.0888109356,-0.0333859734,0.0350475609,0.6021496654,-0.2395890206,-0.0411577076,0.0915058628,-0.4998680353,-0.0338786356,-0.2230658531,0.0713620484,-0.0081561049,0.0594611131,-0.0462381765,-0.0696765855,0.04592916,-0.0280437563,-0.0066786897,-0.0606791116,0.0730033442,-0.0661408454,0.1077775806,-0.0269560143,-0.2496347725,-0.1215941384,0.045862712,-0.211811021,0.0209017284,-0.0106107835,-0.0437352993,-0.093449086,-0.1166718155,-0.0375037305,0.1590934545,-0.1414354146,0.0267914031,0.0268280171,0.0685958788,-0.1098584309,0.0638224557,0.0387447961,-0.0973050147,0.1568010002,0.1778605133,0.1135708243,0.0739528239,-0.1122889891,0.1168350503,0.0273671914,-0.0241304561,0.0677977502,-0.1096041948,0.0482554846,-0.0044004857,-0.1025218144,-0.1104540378,0.0688423738,0.1119586602,-0.1632266045,0.0873944685},{0.1761030108,-0.0346285664,-0.1021019742,0.040375825,-0.1798810959,-0.2004327327,-0.0858478397,-0.0914668292,0.0746798217,-0.1182525307,0.0161190033,0.25266397,-0.0646217242,-0.0435236767,0.0609914511,-0.1352607459,-0.3859237731,0.0227537546,0.1229731888,0.0986729413,-0.0873326436,0.4689512551,0.0262790602,0.6974162459,-0.099382095,-0.0435688533,0.073976621,-0.2441673577,-0.0601662919,-0.0365725867,-0.1002594829,-0.1413173825,-0.0695640519,-0.5317211747,-0.1041187793,-0.0219014585,-0.1644724011,0.0880573392,-0.1923997402,-0.0218828712,-0.1021685824,0.0908049494,0.0808720067,-0.052723892,-0.0923173353,0.0153582478,-0.0192445237,-0.3406727612,-0.2295614034,-0.039480567,-0.1709632277,0.0513108298,-0.055939395,-0.0729278699,-0.0325207412,0.1647190452,0.012908686,-0.0742474422,0.0589954481,-0.0318407938,-0.4589426517,-0.0862504691,0.0064822133,-0.0512828454},{-0.18140921,-0.163104102,0.1984405518,-0.0445034578,0.0986440107,-0.0775856227,0.0149496747,0.2217706889,-0.1286770552,0.0311700534,0.0089182239,-0.2334994674,0.026701929,0.1857280284,0.5389714837,-0.0403967239,-0.3983662724,-0.1109135225,-0.1275570244,-0.1239397451,0.0319689773,0.0095923496,0.0168101955,-0.0037208619,0.0242421739,-0.0142543567,0.2821598947,-0.4905895591,0.0622698665,-0.2047593743,0.2536240816,0.865373075,-0.1964285672,-0.0288029835,0.1445940435,-0.0735136941,-0.1479435414,-0.1037717015,-0.0402147509,0.0362513699,-0.0616248287,-0.1646564901,0.0225219,0.0142400917,-0.1183843985,-0.2320356369,0.1292713583,-0.3904328942,-0.1278805584,0.194483906,-0.1352262348,0.0004718151,-0.1159234717,0.2112859339,0.0704385191,-0.0648344532,0.0146689247,0.1622683108,-0.0053641531,-0.0102954237,0.6161994338,0.1761086136,-0.1152278036,0.1287551075},{-0.0388237797,-0.0276375711,0.0205706842,-0.0787378475,0.0047597452,-0.0667736158,-0.0643319562,-0.4510253072,-0.167690739,0.129019931,-0.0135026565,0.2748975754,0.1216724962,-0.0797802433,-0.1948518157,0.1236452237,0.3746568859,-0.0327490941,-0.1467080265,0.0868511274,-0.2376220077,-0.247766763,0.0275599249,0.5474846959,0.0437133722,-0.0590860359,-0.4816152453,0.0223899428,0.0440475084,0.0417299904,-0.1828927696,-0.4496928155,0.206049189,0.2264398485,0.1046373919,-0.00477699,-0.0151417367,0.373680532,-0.1146767214,0.0239052679,-0.1013721004,0.1238948181,0.1291844249,0.0476594754,-0.0105989352,-0.0145468051,-0.6629344225,-0.065961279,-0.1610473096,-0.0006980491,0.0521683022,0.0841153413,-0.1014561728,0.0259178672,0.0554486848,0.621684134,0.00513701,0.1018443704,-0.1082983091,-0.1234201342,-0.6726716757,0.2573963702,0.0815805346,0.1352975667},{0.2083637714,0.2405312359,0.1036604121,0.0598147847,0.0284238569,-0.0253496263,-0.0676657483,-0.1653233021,-0.0382652581,0.0765642226,0.0061407187,-0.0671847239,-0.2021783739,-0.0304990429,-0.2388116568,0.0237668883,-0.1233367175,0.0038523206,-0.0029288423,0.0295615196,-0.362937808,-0.0705996156,-0.0858413503,0.146921888,-0.0266630258,-0.1348820478,0.1704452038,-0.1113109887,-0.0711904541,-0.0824824944,0.0530261472,-0.0563915931,0.2002513558,-0.2386317402,-0.1526871026,0.0630020499,0.0243677497,0.012615975,-0.122291632,0.0070757838,0.1204435453,-0.0798501223,-0.1696564406,-0.0316214785,-0.0439932756,0.1603865176,-0.0495276563,-0.3643052876,-0.0322252065,-0.012394215,0.0788704455,0.0070706126,0.1024126187,0.0383378118,0.0462225862,-0.0731454194,0.0702099204,0.1381106377,-0.0590818375,0.1058834717,-0.0042618578,-0.0142673561,0.0493811853,0.0919670239},{-0.3513873219,-0.1331710219,-0.0883331373,-0.1772622615,0.043917276,-0.0976697803,0.0477225408,-0.2736466825,-0.074042581,0.0962215289,-0.0065195365,0.0482831001,-0.1481728703,-0.0288582556,0.4838457108,0.0480145067,0.0524201542,0.0227622148,-0.1682753116,-0.0447136872,-0.0417365953,0.2147263438,0.1010919064,0.0967174843,0.0426743254,-0.0831267908,-0.1399939507,0.3923915327,-0.1937905997,0.024207497,0.1484776586,1.2139753103,-0.0453730375,1.1171699762,0.1681694835,-0.1065170169,0.0091778701,0.1563272178,0.5804597139,0.0150872292,-0.1665238589,-0.1519225389,0.0920307189,0.0773968846,-0.1788214594,-0.0970572755,-0.7489814162,-0.0772019178,0.0534932278,-0.0382786617,-0.0649858341,0.0232035853,0.0138943577,0.0394665748,-0.0403311923,0.1361816525,-0.0730086491,-0.031652879,-0.2818430066,0.0552844442,0.4572065771,0.1812602878,-0.0470553525,0.0513429902},{0.0552268997,0.1805628389,0.0855425149,-0.1350569129,0.3453857601,0.0241596252,-0.1146205366,-0.224161759,0.1224918664,0.0748537928,0.0176255032,0.4374304116,-0.1143719032,-0.0713931322,0.2359114289,0.0232752804,0.0490272976,-0.0746691823,0.1308358163,-0.0284246393,-0.0605777092,-0.0198752824,-0.0447140746,0.2446728945,-0.0155695425,-0.1597292125,-0.175487414,-0.0002552924,-0.2133980393,0.1138585284,0.0076367822,-0.0079669449,0.0572391227,0.29455778,-0.0102013322,0.0480890498,-0.0717330873,-0.0305819716,-0.0108662434,0.1276938319,0.0960678384,0.0558986291,-0.1117768511,-0.1277351826,0.0243550017,0.0283932295,-0.1424258798,-0.0783191249,0.0622388013,0.0512011796,0.1478741914,0.2335163355,0.040684063,-0.0346578248,0.2227855027,0.0390769243,0.0771708339,-0.175965935,-0.0729825944,-0.0554808527,-0.0352382474,-0.2029730827,-0.0575132594,-0.0909194574},{-0.442135483,0.0783893615,-0.0646870732,0.0340219885,0.1144673675,-0.0625320971,-0.1340646744,0.3230641186,-0.1296335161,0.0378144979,0.084385775,-0.1821697056,-0.1746141165,0.1939240843,-0.2987083495,0.0531629473,-0.1432143748,-0.2971973717,0.018300917,0.0723778382,-0.1161530763,0.0964595377,0.0760735646,-0.5324233174,-0.0650845543,-0.1662073433,0.3514207304,0.0268284474,-0.1198041812,-0.0782730728,0.1092465743,-0.3452161252,-0.1084272861,-0.4424553216,0.0598594099,-0.0413698293,-0.1066996977,-0.2173614502,-0.0280835088,0.1527972817,-0.0161437988,-0.0107541112,-0.3781202734,-0.0006617957,-0.097564958,0.012733778,0.8442902565,-0.292837441,-0.0379847176,-0.0300053544,-0.0339893922,0.0886528194,-0.0647425205,-0.0175126959,0.0378350243,-0.2439107448,-0.0652831122,-0.071735315,-0.0419719368,-0.0276225712,0.0765990019,0.3437683284,0.1066782698,-0.0389050394}};

static const float layer_2_weight[64][3] = 	{{0.1953496635,0.1031427756,-0.2569020092},
											 {0.0003571371,0.0004295926,0.0022012985},
											 {0.0051141684,0.0049233288,0.0020304234},
											 {-0.0052062692,-0.0041330503,-0.0037449782},
											 {-0.0320375711,0.0324148983,-0.0404048488},
											 {0.0018124626,0.0012388036,-0.0052206069},
											 {-0.0003521393,0.0005178471,-0.0032635662},
											 {0.0302881431,0.2042303979,-0.0079297069},
											 {-0.0004660377,0.0015336158,-0.0041226842},
											 {-0.0017271084,-0.0013807603,0.0028726705},
											 {-0.0007482388,-0.0010806256,0.0009652569},
											 {-0.0660666153,-0.026465863,-0.0700966865},
											 {-0.0003230546,0.0008589489,0.002440789},
											 {0.0013799368,-0.0009130369,0.0014747104},
											 {0.3008351326,0.3942096233,0.0825313181},
											 {0.0020230485,0.0009238558,0.001471778},
											 {-0.5998466015,0.0227739885,-0.8280830979},
											 {0.0044545694,0.0018123718,0.0054515046},
											 {-0.0010366044,0.0019290948,-0.0030502854},
											 {0.0013801343,0.0017622026,-0.0004964744},
											 {-0.0007198073,0.0013707908,0.0025960456},
											 {-0.0525007956,-0.0066281669,-0.3422624767},
											 {-0.0000589475,-0.00419121,0.0062016156},
											 {0.1029419973,0.0235177483,0.3265493512},
											 {0.0013460414,0.0041736569,-0.0021736855},
											 {-0.0036134168,0.0008572871,0.0046559949},
											 {0.1331220269,0.0977266952,-0.2139444351},
											 {0.0643059313,-0.2216245532,0.1529909372},
											 {0.0002638382,-0.0004724095,0.0008792889},
											 {-0.0007445069,-0.0018153298,0.0012318856},
											 {0.0039391965,0.0027269979,0.0053613074},
											 {0.7312659025,-0.891556561,0.0877825767},
											 {0.0039462191,0.0001170426,-0.0012429366},
											 {0.212992847,-0.3064666688,-0.006069479},
											 {0.0003725854,-0.0003515116,0.0042970353},
											 {0.0005166006,0.0005535231,0.0026115794},
											 {-0.0003815337,0.0009495809,0.0004075361},
											 {-0.4048498273,-0.6844688058,0.2475295365},
											 {-0.134008646,0.3472788632,-0.0390991233},
											 {-0.0002798203,0.0002092939,-0.0043927059},
											 {0.0017746987,0.0010472352,-0.0025883436},
											 {0.0004103537,0.0012070877,-0.0020338492},
											 {0.0715440214,-0.3243222833,-0.1123220325},
											 {0.0025810294,0.0028986128,0.0017703762},
											 {0.0053646113,0.0020628052,-0.0017877958},
											 {-0.0002794408,0.0002710804,0.0025324021},
											 {0.3650065362,-0.2769552767,-0.3421193063},
											 {-0.0803440735,0.1871773899,0.286523819},
											 {-0.0043035848,-0.0033779824,0.0003946147},
											 {0.0020943447,0.0041304948,0.0027318315},
											 {0.0026373863,-0.0001840765,0.0023902929},
											 {0.0005436587,-0.0022622584,0.0032400901},
											 {-0.0019897234,0.0008129797,-0.0040259985},
											 {-0.0003177436,0.0003858432,0.0015960552},
											 {-0.0009783946,0.0015427977,0.0006878928},
											 {-0.0327301323,0.7329890132,0.085270755},
											 {0.0015877627,0.0002967406,0.0023199774},
											 {-0.0003323432,0.0009480172,-0.0013845351},
											 {-0.0013103029,0.0007526189,-0.0015876389},
											 {-0.0008522318,0.0020691769,-0.0010200441},
											 {-0.7032187581,-0.6005928516,-0.111633487},
											 {0.0016071616,-0.0011161562,-0.0009462459},
											 {0.0009267657,0.0019318477,-0.0064718314},
											 {0.001356422,0.0029793866,-0.0008355264}};

static const float layer_0_bias[64] = {0.3700912595,0.6839798093,0.1613178551,-0.1467345208,0.2247632146,-0.3950283527,0.0995064452,0.2305189222,-0.1519100964,0.0648359805,-0.3711806834,0.2703757584,0.0081206616,-0.2501794994,-0.2597850561,-0.2763642967,-0.001071277,-0.3964526355,0.0728456229,-0.0353822187,0.1132626235,0.0242498145,-0.3345030844,0.2146991342,-0.0169938933,0.3340285122,-0.5790186524,0.053752169,-0.2017998397,0.1583461612,0.0519854017,-0.4861507714,0.2825010717,0.1022374108,-0.2280497849,0.2833838165,-0.5007975698,-0.0569981299,-0.5239422321,-0.2877131402,-0.0280099399,0.1818262637,-0.5865745544,-0.3234705627,0.5173068643,0.1814510673,-0.4139171839,-0.5180413127,0.0981072038,-0.611343205,-0.0521837324,0.3863199055,-0.5240434408,-0.196849525,0.0423605107,-0.1569208056,0.0173219964,-0.2754496932,0.2216678709,-0.4701797962,0.0954845771,0.0353973657,-0.2661506236,0.2930133045};
static const float layer_1_bias[64] = {0.0935505331,-0.0308560319,0.0337634832,-0.0177211799,-0.0116543416,-0.0084079662,-0.0095514487,-0.0330096185,0.0370699093,0.0034485597,0.0233154371,0.0690896809,-0.0035113031,0.0129909255,-0.8611084819,-0.1078807563,-0.1322860867,0.1179083437,-0.0105269933,0.0572090037,0.013989877,0.4916312993,0.0008445524,-0.1463474929,0.0370742716,0.1074057594,0.0865570456,0.0435283147,0.04646568,-0.009867656,-0.0320915245,0.0344064534,-0.046132423,-0.1139428988,0.0089335041,0.0311036464,-0.0317189917,-0.2519424856,-0.3257831633,0.0598149113,-0.0022741368,0.0329820812,-0.0990750045,0.0244743675,-0.0072727236,-0.017549444,0.3705776334,-0.2177783251,-0.0519510098,-0.0213102009,0.0029732923,0.0983037576,-0.0078486176,-0.0266928822,-0.0321233831,0.1642133147,-0.0996481031,-0.019893758,0.0389647633,-0.0308217593,0.0946238339,-0.0610428229,-0.0549460575,0.0607885197};
static const float layer_2_bias[3] = {0.1729297042,-0.7244843841,-0.0203811154};

	void networkEvaluate(struct control_t_n *control_n, const float *state_array) {
	
		for (int i = 0; i < structure[0][1]; i++) {
			output_0[i] = 0;
			for (int j = 0; j < structure[0][0]; j++) {
				output_0[i] += state_array[j] * layer_0_weight[j][i];
			}
			output_0[i] += layer_0_bias[i];
			output_0[i] = tanh(output_0[i]);
		}
	
		for (int i = 0; i < structure[1][1]; i++) {
			output_1[i] = 0;
			for (int j = 0; j < structure[1][0]; j++) {
				output_1[i] += output_0[j] * layer_1_weight[j][i];
			}
			output_1[i] += layer_1_bias[i];
			output_1[i] = tanh(output_1[i]);
		}
		
		for (int i = 0; i < structure[2][1]; i++) {
			output_2[i] = 0;
			for (int j = 0; j < structure[2][0]; j++) {
				output_2[i] += output_1[j] * layer_2_weight[j][i];
			}
			output_2[i] += layer_2_bias[i];
		}
		
		control_n->roll = clip(output_2[0], -1, 1) * maxVelocity;
		control_n->pitch = clip(output_2[1], -1, 1) * maxVelocity;
		control_n->yaw = clip(output_2[2], -1, 1) * maxYaw;	
	}
	